Language model created by QuickLM on Sun Jun 18 21:54:38 EDT 2017
Copyright (c) 1996-2010 Carnegie Mellon University and Alexander I. Rudnicky

The model is in standard ARPA format, designed by Doug Paul while he was at MITRE.

The code that was used to produce this language model is available in Open Source.
Please visit http://www.speech.cs.cmu.edu/tools/ for more information

The (fixed) discount mass is 0.5. The backoffs are computed using the ratio method.
This model based on a corpus of 14 sentences and 45 words

\data\
ngram 1=45
ngram 2=70
ngram 3=68

\1-grams:
-1.1549 </s> -0.3010
-1.1549 <s> -0.2672
-2.3010 A -0.2989
-2.3010 ARE -0.2856
-2.3010 ARM -0.2695
-2.3010 AT -0.2989
-2.3010 BE -0.2989
-2.3010 CAN -0.2856
-2.3010 DEGRES -0.2989
-1.6990 DO -0.2529
-2.3010 DOES -0.2945
-2.3010 EYES -0.2923
-2.3010 FAMILY -0.2695
-2.3010 FREEDOM -0.2923
-2.3010 FROM -0.2695
-2.3010 HAPPEN -0.2967
-1.8239 HAVE -0.2529
-2.3010 HOME -0.2967
-2.3010 HOSTED -0.2695
-2.0000 HOW -0.2967
-2.3010 IN -0.2856
-1.6990 IS -0.2878
-2.3010 JOKE -0.2695
-2.0000 LEAGUE -0.2601
-2.3010 MANY -0.2989
-2.3010 MAY -0.2989
-2.3010 ME -0.2989
-2.3010 MEANS -0.2695
-2.0000 NAME -0.2672
-2.3010 NEXT -0.2989
-2.3010 OF -0.2989
-2.3010 PARTICIPATE -0.2695
-2.0000 ROBOCUP -0.2672
-2.3010 SARA -0.2989
-2.3010 TELL -0.2989
-2.3010 THE -0.2989
-2.0000 TO -0.2529
-2.3010 TRAVELED -0.2967
-1.4559 WHAT -0.2810
-1.8239 WHERE -0.2900
-2.3010 WHO -0.2923
-2.3010 WILL -0.2989
-2.3010 YEAR -0.2967
-1.4559 YOU -0.2765
-1.8239 YOUR -0.2945

\2-grams:
-1.1461 <s> HOW 0.0000
-1.4472 <s> IN 0.0000
-1.4472 <s> SARA 0.0000
-0.6690 <s> WHAT -0.0580
-0.9700 <s> WHERE 0.0000
-1.4472 <s> WHO 0.0000
-0.3010 A JOKE 0.0000
-0.3010 ARE YOU -0.2688
-0.3010 ARM </s> -0.3010
-0.3010 AT HOME 0.0000
-0.3010 BE HOSTED 0.0000
-0.3010 CAN YOU -0.2688
-0.3010 DEGRES OF 0.0000
-0.9031 DO </s> -0.3010
-0.4260 DO YOU -0.1963
-0.3010 DOES YOUR -0.1249
-0.3010 EYES DO -0.0969
-0.3010 FAMILY </s> -0.3010
-0.3010 FREEDOM DO -0.0969
-0.3010 FROM </s> -0.3010
-0.3010 HAPPEN TO -0.1761
-0.4771 HAVE </s> -0.3010
-0.7782 HAVE YOU -0.2688
-0.3010 HOME LEAGUE -0.1761
-0.3010 HOSTED </s> -0.3010
-0.6021 HOW MANY 0.0000
-0.6021 HOW MAY 0.0000
-0.3010 IN WHAT -0.2688
-0.9031 IS ROBOCUP -0.1761
-0.9031 IS THE 0.0000
-0.6021 IS YOUR 0.0000
-0.3010 JOKE </s> -0.3010
-0.6021 LEAGUE </s> -0.3010
-0.6021 LEAGUE DO -0.0969
-0.3010 MANY DEGRES 0.0000
-0.3010 MAY EYES 0.0000
-0.3010 ME A 0.0000
-0.3010 MEANS </s> -0.3010
-0.6021 NAME </s> -0.3010
-0.6021 NAME MEANS 0.0000
-0.3010 NEXT YEAR 0.0000
-0.3010 OF FREEDOM 0.0000
-0.3010 PARTICIPATE </s> -0.3010
-0.6021 ROBOCUP </s> -0.3010
-0.6021 ROBOCUP BE 0.0000
-0.3010 SARA TELL 0.0000
-0.3010 TELL ME 0.0000
-0.3010 THE AT 0.0000
-0.6021 TO </s> -0.3010
-0.6021 TO YOU -0.2688
-0.3010 TRAVELED TO -0.1761
-1.1461 WHAT CAN 0.0000
-1.1461 WHAT DOES 0.0000
-1.1461 WHAT HAPPEN 0.0000
-0.6690 WHAT IS 0.0000
-1.1461 WHAT LEAGUE -0.1761
-0.7782 WHERE ARE 0.0000
-0.7782 WHERE HAVE -0.2218
-0.7782 WHERE WILL 0.0000
-0.3010 WHO IS -0.1761
-0.3010 WILL NEXT 0.0000
-0.3010 YEAR ROBOCUP -0.1761
-1.1461 YOU ARM 0.0000
-1.1461 YOU DO -0.2430
-1.1461 YOU FROM 0.0000
-0.8451 YOU HAVE -0.1249
-1.1461 YOU PARTICIPATE 0.0000
-1.1461 YOU TRAVELED 0.0000
-0.7782 YOUR FAMILY 0.0000
-0.4771 YOUR NAME 0.0000

\3-grams:
-0.6021 <s> HOW MANY
-0.6021 <s> HOW MAY
-0.3010 <s> IN WHAT
-0.3010 <s> SARA TELL
-1.0792 <s> WHAT CAN
-1.0792 <s> WHAT DOES
-1.0792 <s> WHAT HAPPEN
-0.6021 <s> WHAT IS
-0.7782 <s> WHERE ARE
-0.7782 <s> WHERE HAVE
-0.7782 <s> WHERE WILL
-0.3010 <s> WHO IS
-0.3010 A JOKE </s>
-0.3010 ARE YOU FROM
-0.3010 AT HOME LEAGUE
-0.3010 BE HOSTED </s>
-0.3010 CAN YOU DO
-0.3010 DEGRES OF FREEDOM
-0.4771 DO YOU HAVE
-0.7782 DO YOU PARTICIPATE
-0.3010 DOES YOUR NAME
-0.3010 EYES DO YOU
-0.3010 FREEDOM DO YOU
-0.3010 HAPPEN TO YOU
-0.3010 HAVE YOU TRAVELED
-0.3010 HOME LEAGUE </s>
-0.3010 HOW MANY DEGRES
-0.3010 HOW MAY EYES
-0.3010 IN WHAT LEAGUE
-0.3010 IS ROBOCUP </s>
-0.3010 IS THE AT
-0.6021 IS YOUR FAMILY
-0.6021 IS YOUR NAME
-0.3010 LEAGUE DO YOU
-0.3010 MANY DEGRES OF
-0.3010 MAY EYES DO
-0.3010 ME A JOKE
-0.3010 NAME MEANS </s>
-0.3010 NEXT YEAR ROBOCUP
-0.3010 OF FREEDOM DO
-0.3010 ROBOCUP BE HOSTED
-0.3010 SARA TELL ME
-0.3010 TELL ME A
-0.3010 THE AT HOME
-0.3010 TO YOU ARM
-0.3010 TRAVELED TO </s>
-0.3010 WHAT CAN YOU
-0.3010 WHAT DOES YOUR
-0.3010 WHAT HAPPEN TO
-0.7782 WHAT IS ROBOCUP
-0.7782 WHAT IS THE
-0.7782 WHAT IS YOUR
-0.3010 WHAT LEAGUE DO
-0.3010 WHERE ARE YOU
-0.3010 WHERE HAVE YOU
-0.3010 WHERE WILL NEXT
-0.3010 WHO IS YOUR
-0.3010 WILL NEXT YEAR
-0.3010 YEAR ROBOCUP BE
-0.3010 YOU ARM </s>
-0.3010 YOU DO </s>
-0.3010 YOU FROM </s>
-0.3010 YOU HAVE </s>
-0.3010 YOU PARTICIPATE </s>
-0.3010 YOU TRAVELED TO
-0.3010 YOUR FAMILY </s>
-0.6021 YOUR NAME </s>
-0.6021 YOUR NAME MEANS

\end\
